export const GalModel = {
  "architecture": "mlp",
  "checkpoint_sha256": "574455b044a6b7de3ce0dae1f20e3208258b7f2d2de14039548670db81f79225",
  "feature_names": ["people_present", "vehicles_present", "obstacles_present", "evidence_complete", "operator_review_required", "latency_measured", "approval_refs_complete", "detection_count_norm"],
  "labels": ["clear_for_operator_review", "hold_for_operator_review"],
  "model_ref": "gal-model://gal/v1.2",
  "schema_version": "gal-model-runtime-artifact/v0",
  "weights": {
    "layers.0.bias": [0.12155499309301376, -0.009607668034732342, -0.07618585973978043, -0.07031980901956558, -0.4177524745464325, -0.01836361549794674, -0.21583470702171326, -0.014656984247267246, -0.024517808109521866, 0.47962069511413574, -0.008357016369700432, -0.043607015162706375, -0.056055597960948944, -0.006001909729093313, 0.30538713932037354, -0.19048623740673065, -0.004347832407802343, -0.05025777593255043, 0.11546528339385986, -0.01542782224714756, -0.005291129928082228, -0.057282283902168274, -0.21023964881896973, 0.3672882318496704],
    "layers.0.weight": [
      [-1.5033560991287231, 0.672075629234314, 1.0794334411621094, -0.16180169582366943, -0.5003404021263123, -0.3931455910205841, -0.2929178476333618, 2.8803226947784424],
      [-0.00268175033852458, 0.006994270719587803, 0.007067427039146423, 0.0010141929378733039, -0.0042443424463272095, -0.005847617518156767, -0.001093333587050438, -0.0028018192388117313],
      [-0.10628625750541687, 0.015359239652752876, 0.023348283022642136, -0.07781891524791718, -0.003663552226498723, -0.07304370403289795, -0.089081771671772, 0.06259001791477203],
      [-0.22990523278713226, 0.005625803954899311, -0.11608604341745377, -0.06402229517698288, 0.011932636611163616, -0.12063419073820114, -0.07041200995445251, 0.13701137900352478],
      [-0.4210380017757416, -0.02532663196325302, 0.1623333841562271, -0.7607231736183167, 0.6106800436973572, -0.7495222091674805, -1.025504469871521, -0.2996053397655487],
      [-0.0493198037147522, 0.025198690593242645, -0.1007566973567009, -0.040503185242414474, -0.0030995255801826715, -0.05966832488775253, -0.05404437705874443, -0.044122226536273956],
      [-0.49656546115875244, 0.386662095785141, 0.2038731724023819, -0.2786245048046112, -0.06273990124464035, -0.26519066095352173, -0.3130790889263153, -0.3935578167438507],
      [-0.009264850988984108, -0.0009427444892935455, 0.004320526961237192, -0.0011368138948455453, -0.0008267697412520647, -0.0034496448934078217, -0.0008594903047196567, -0.0005737132159993052],
      [-0.31344226002693176, -0.25401565432548523, -0.46519994735717773, -0.03417075797915459, -0.5662266612052917, -0.011851957067847252, -0.02560201846063137, -0.23902833461761475],
      [-0.0372697152197361, 0.05258389189839363, -1.6858491897583008, 0.4048249423503876, -2.8618106842041016, 0.24689088761806488, 0.4973846971988678, -2.1564574241638184],
      [-0.03937359154224396, -0.03988933935761452, -0.02201506681740284, -0.008273965679109097, -0.054156363010406494, -0.009045317769050598, 0.0001609623577678576, -0.05315878987312317],
      [-0.041498344391584396, -0.015476493164896965, 0.018326932564377785, -0.07049446552991867, 0.02490883320569992, -0.06605641543865204, -0.09382715821266174, -0.01843271031975746],
      [0.19906377792358398, 0.022410113364458084, 0.29774901270866394, -0.9842049479484558, 0.3791489601135254, -0.9387425780296326, -1.5985456705093384, -0.38286375999450684],
      [-0.0019663271959871054, -0.006273874547332525, 0.003155495272949338, -0.003210586728528142, -0.009850178845226765, 0.00459874514490366, -0.002682450460270047, 0.002613312564790249],
      [0.18778963387012482, 0.7396722435951233, 0.21605363488197327, -0.7390799522399902, 0.9228453636169434, -0.9821045398712158, -1.5180468559265137, 0.25168895721435547],
      [0.24229861795902252, -0.32958871126174927, -0.12855753302574158, -0.5239596962928772, 0.24679480493068695, -0.3651185631752014, -0.3868735432624817, 0.896797239780426],
      [-0.04200221225619316, -0.06691793352365494, -0.3944789469242096, -0.02547762356698513, -0.3161078095436096, -0.07558703422546387, 0.005670113023370504, -0.2924845218658447],
      [-0.0012726180721074343, -0.02332526631653309, 0.03965216875076294, -0.050135958939790726, -0.011755745857954025, -0.04603426158428192, -0.06023813411593437, 0.029045134782791138],
      [0.15635918080806732, -0.1413559913635254, -1.6652435064315796, -0.1394873708486557, 1.6336324214935303, -0.46161720156669617, -0.3695600926876068, 0.6825705766677856],
      [-0.12185722589492798, -0.09091898053884506, -0.0636008158326149, -0.023272601887583733, 0.03166162222623825, -0.029933461919426918, -0.015025420114398003, -0.03800931200385094],
      [-0.0026211861986666918, 0.0008373143500648439, -0.005677669309079647, -0.009231403470039368, 0.0043584019877016544, -0.008169465698301792, -0.0024989726953208447, -0.005286326166242361],
      [-0.056469693779945374, -0.012089922092854977, -0.01890014298260212, -0.08296845108270645, 0.055751170963048935, -0.07670051604509354, -0.09648606926202774, 0.06753145903348923],
      [-0.4009362757205963, 0.10993154346942902, 0.06677807867527008, -0.5113168358802795, 0.286693811416626, -0.38634437322616577, -0.28771916031837463, 0.03419620171189308],
      [-1.7079066038131714, -1.6186604499816895, -0.8067200183868408, 0.36374232172966003, -0.8332467675209045, 0.2517509162425995, 0.36520087718963623, -0.2306962013244629]
    ],
    "layers.2.bias": [-0.040069907903671265, -0.17916204035282135, -0.007825962267816067, -0.03778761252760887, -0.3392067849636078, -0.006810262333601713, -0.04239487648010254, -0.0055326721630990505, -0.012484349310398102, -0.7403997182846069, -0.048740461468696594, -0.034987736493349075, -0.008726779371500015, -0.2005215734243393, -0.005811664275825024, -0.744788646697998, 0.33886682987213135, -0.0033999665174633265, -0.4994755685329437, -0.2773367464542389, -0.43741685152053833, 1.2423597574234009, -0.0866040587425232, -0.009469028562307358],
    "layers.2.weight": [
      [-0.06720315665006638, 0.00203468999825418, -0.0022996540647000074, -0.008422874845564365, -0.002985060680657625, -0.005245905835181475, -0.00781924556940794, -0.0024316192138940096, -0.015095172449946404, -0.02844424732029438, 0.013113201595842838, -0.012646560557186604, -0.00975219625979662, -0.0034423775505274534, -0.003733685240149498, -0.002766345627605915, -0.042508773505687714, -0.06559913605451584, -0.000968055974226445, -0.00015664634702261537, 0.002811327576637268, -0.005293983966112137, -0.0030967402271926403, -0.004575630184262991],
      [-0.003699459135532379, -0.0019129844149574637, -0.014684805646538734, -0.031648848205804825, -0.17376884818077087, -0.011439045891165733, -0.00990338996052742, -0.002293236320838332, -0.026112321764230728, 0.011885385029017925, 0.0027103868778795004, 0.0005472300690598786, -0.035158466547727585, 0.00504692317917943, -0.013192377984523773, 0.00764378672465682, -0.031747329980134964, 0.006417353171855211, -0.052304357290267944, 0.001496157143265009, -0.002415597438812256, -0.006992175243794918, -0.010639575310051441, -0.007053939625620842],
      [8.297840395243838e-05, 0.0011082520941272378, -0.014388359151780605, 1.6087988115032203e-06, -0.015636011958122253, 0.007821105420589447, -0.002249169396236539, -0.0026004170067608356, -0.0058241356164216995, -0.0015023405430838466, -0.0039943912997841835, -0.029939258471131325, -0.05042731389403343, -0.006164999213069677, -0.0067443582229316235, -0.002169485902413726, -0.0021776321809738874, -0.00012477255950216204, -0.025224393233656883, -0.004807677585631609, -0.004651560913771391, -0.0004780995659530163, -0.004179478622972965, -0.01027615088969469],
      [-0.03219291940331459, -0.0025436305440962315, -0.00376420677639544, -0.030171388760209084, 0.0013951592845842242, -0.0030460285488516092, 0.0014115695375949144, 0.004812438506633043, -0.004325773101300001, 0.001883116434328258, -0.011020608246326447, -0.012541625648736954, -0.00267925881780684, 0.003908276557922363, -0.013056176714599133, -1.0626795301504899e-05, -0.039639122784137726, 0.0019230651669204235, -0.0022662049159407616, -0.0024387543089687824, -0.000574361125472933, -0.009820719249546528, 0.010442862287163734, -0.005109167192131281],
      [-0.09847626835107803, 0.0011394931934773922, -0.010296672582626343, -0.037456024438142776, 0.011636522598564625, -0.00758123304694891, -0.01151801273226738, -0.003068507881835103, 0.134922593832016, -0.11659760028123856, 0.009446019306778908, 0.06644152849912643, -0.07555671036243439, -0.003644044976681471, -0.01410579588264227, 0.0031623663380742073, -0.09343250840902328, 0.00037002464523538947, -0.46632689237594604, -0.003294701222330332, -0.005042215343564749, -0.0065317521803081036, 0.0191497765481472, 0.21010610461235046],
      [-0.01007270161062479, -0.0005293128779157996, -0.011387834325432777, -0.013464102521538734, -0.01516240555793047, -0.003256686730310321, -0.002887109760195017, -0.005797405727207661, -0.009740892797708511, -0.0046236817725002766, -0.0002785907418001443, -7.737841224297881e-05, -0.0037290044128894806, 0.004512360319495201, -0.13783766329288483, -0.005140742752701044, -0.004461418837308884, 0.0014169701607897878, -0.011085796169936657, -0.006215485278517008, -0.000695516646374017, -0.004767933860421181, -0.010625171475112438, -0.0022186359856277704],
      [-0.01584448665380478, 0.00021600774198304862, -0.01730150170624256, -0.003834339790046215, -0.014934509061276913, 0.009616476483643055, -0.014745618216693401, -0.0006781343836337328, -0.011911771260201931, -0.02313905768096447, -0.011538038030266762, 0.04409729689359665, -0.028555432334542274, 0.002120252000167966, -0.039817798882722855, -0.00565660186111927, -0.010082538239657879, 0.011014747433364391, -0.015850113704800606, 0.014711775816977024, -0.0016043150098994374, -0.013206307776272297, -0.004848673474043608, -0.020591754466295242],
      [-0.03772894665598869, 0.002420201199129224, -0.01678645797073841, -0.013702399097383022, -0.01352157536894083, -0.004729526583105326, -0.007910524494946003, -0.005586204119026661, -0.012185630388557911, -0.006334524601697922, -0.009087399579584599, -0.0008231017272919416, -0.004156875889748335, -0.0022423139307647943, -0.007109765894711018, -0.001974024111405015, -0.008905722759664059, -0.04143412783741951, -0.017080655321478844, -0.005703703500330448, 0.002010183408856392, 0.0019350869115442038, -0.004195983987301588, -0.003978987690061331],
      [-0.005039371084421873, 0.003038237802684307, -0.0037709169555455446, -0.009526445530354977, -0.009445369243621826, 0.0018787188455462456, -0.007745550479739904, -0.005051914602518082, -0.030247554183006287, -0.03006763570010662, 0.0013123932294547558, 0.0006644778186455369, -0.0033367210999131203, -0.001298500457778573, 0.0008985589956864715, -0.003146849339827895, -0.022768698632717133, -0.0030942426528781652, 0.00017980716074816883, -0.01975376158952713, -0.0040820203721523285, 0.00014448243018705398, -0.009905626066029072, -0.00379370991140604],
      [-0.28224945068359375, 0.0016857438022270799, -0.09273979067802429, 0.2696189880371094, 0.42472168803215027, -0.14867933094501495, -0.24218373000621796, 0.0013412482803687453, -0.0426861047744751, -0.13567735254764557, -0.008110505528748035, 0.14090758562088013, -0.3594461977481842, 0.0024448265321552753, -0.46512800455093384, 0.8583071231842041, -0.07227423042058945, -0.11728309094905853, -0.23636645078659058, -0.07754964381456375, 0.004276096820831299, 0.040022775530815125, 1.5963966846466064, -0.12687189877033234],
      [-0.06763303279876709, 0.0008333294535987079, -0.015195184387266636, -0.0071992650628089905, -0.014302563853561878, 0.08744902163743973, 0.0012750551104545593, 0.002325461246073246, -0.013086727820336819, -0.025758404284715652, -0.020943868905305862, 0.003148977644741535, -0.035673629492521286, 0.0065009561367332935, -0.06268970668315887, -0.00955877173691988, -0.011632544919848442, -0.18683846294879913, -0.010395989753305912, 0.013238953426480293, 0.00558653986081481, 0.00019133294699713588, -0.0007622521370649338, -0.0016151659656316042],
      [-0.0009896489791572094, 0.0005458607338368893, -0.03684444725513458, -0.00985257513821125, -0.03231901675462723, -0.00010104223474627361, -0.0005684029310941696, -0.0004662341671064496, -0.0037516034208238125, -0.008313996717333794, 0.002300045220181346, 0.00025010184617713094, -0.026621539145708084, -0.0002380618971074, -0.016689982265233994, -5.322504512150772e-05, 0.001774913165718317, -0.00759837357327342, -0.00908250454813242, -0.0027024836745113134, -0.003289006883278489, -0.009304007515311241, -0.0021083892788738012, -0.0044707958586514],
      [-0.001395976054482162, 0.0022840045858174562, 0.0017300582258030772, 2.6690400773077272e-05, -0.008791658096015453, -0.004632230848073959, 0.004606869537383318, -0.0048838104121387005, 0.00351323583163321, -0.0068913972936570644, 0.0046122255735099316, 0.003250714624300599, -0.003967531491070986, -0.004752194508910179, -0.0025201693642884493, -0.00262778764590621, -0.003262176411226392, 0.00066212477395311, 0.0014116567326709628, -0.00410960940644145, -0.00039033652865327895, -0.0009965194622054696, -0.002799688372761011, -0.0041000740602612495],
      [0.014728556387126446, 0.003966447897255421, -0.024883892387151718, 0.019568243995308876, -0.10136667639017105, -0.0019504629308357835, 0.005297897383570671, 0.0038952974136918783, -0.02521328441798687, 0.015597372315824032, -0.0046464670449495316, -0.014714368619024754, -0.21026115119457245, -0.0017682171892374754, -0.08308272063732147, -0.0007243860163725913, -0.09525880217552185, -0.024545222520828247, -0.16224895417690277, 0.039646513760089874, 0.002856904175132513, -0.03155089169740677, 0.002621985040605068, -0.006492711137980223],
      [-0.002340123988687992, 0.0027465191669762135, -0.00232712272554636, -0.0014462549006566405, -0.0069231437519192696, 0.0055047813802957535, -0.0013443147763609886, -0.0038298352155834436, -0.0030970340594649315, 0.0011425478151068091, -0.0010171312605962157, -0.02584497630596161, -0.032839711755514145, -0.0010287719778716564, -0.005155865103006363, -0.003047072561457753, -0.005407086107879877, -0.0020201795268803835, -0.0006146332016214728, -0.0051152994856238365, -0.0029447146225720644, 0.004507044330239296, -0.00539823854342103, -0.0005830927984789014],
      [0.029474496841430664, 0.0022809384390711784, 0.34627434611320496, -0.010995130054652691, 0.060506951063871384, -0.07771118730306625, -0.0318906269967556, -0.015967126935720444, -0.2762841284275055, -0.24794381856918335, -0.042063869535923004, 0.262351393699646, -0.5259295105934143, -0.0013149258447811007, -0.6235966086387634, 0.014527963474392891, -0.25807100534439087, -0.36174476146698, -0.17417632043361664, -0.014758184552192688, 0.0055834464728832245, 0.1805749088525772, -0.008988356217741966, -0.0673518180847168],
      [0.2788315713405609, -0.0006370238843373954, 0.1284412145614624, 0.3250845968723297, 1.7789746522903442, -0.15220364928245544, -0.1510756015777588, -0.09748341888189316, -0.11321154981851578, -0.9608709216117859, 0.002049823058769107, 0.2470477819442749, 1.984322190284729, 0.005038648843765259, 0.8923386335372925, 1.2347469329833984, -0.07011735439300537, 0.025338435545563698, 2.186906576156616, -0.10293098539113998, -0.0052629876881837845, -0.07522761821746826, 0.47566208243370056, 0.4165853261947632],
      [-0.027835803106427193, 0.005507609806954861, -0.009919974952936172, -0.013130608014762402, -0.010840456932783127, -0.006719405762851238, -0.0060384320095181465, 0.005400487221777439, -0.006579456385225058, -0.0028854738920927048, -0.004277943633496761, -0.010011117905378342, -0.026413867250084877, 0.004776746965944767, 0.0007301123696379364, -0.002010293770581484, -0.005837342236191034, -0.0012195443268865347, -0.01720086857676506, -0.004339445382356644, 0.0033932956866919994, -0.007565445266664028, -0.003047850215807557, -0.0009280169033445418],
      [-0.37603771686553955, 0.0021865195594727993, 0.10772933810949326, -0.3167814016342163, -0.14321266114711761, -0.046194206923246384, 0.23364287614822388, 0.005513178650289774, 0.042955730110406876, -0.14228375256061554, -0.013099105097353458, 0.04735519364476204, -0.5557620525360107, -0.003761355997994542, -0.462772399187088, 0.6308875679969788, -0.012124618515372276, 0.04999213293194771, -0.979012668132782, 0.017229676246643066, -0.0022880733013153076, 0.03855529800057411, 0.0661177709698677, 2.6764845848083496],
      [-0.04671565070748329, 0.0003756140358746052, -0.01628311350941658, -0.02812282182276249, -0.15085375308990479, -0.012964433990418911, -0.007342196069657803, 0.00442577013745904, -0.07152754813432693, -0.05451783910393715, 0.0019435120048001409, -0.005137869622558355, -0.1263277679681778, -0.0013630588073283434, 0.02494191937148571, 0.001181076280772686, -0.09748044610023499, -0.0006173612200655043, -0.10276947915554047, 0.004319784231483936, 0.005328373052179813, -0.000612737494520843, -0.007256501819938421, -0.04798968508839607],
      [-0.16694243252277374, -0.0014739471953362226, -0.015031738206744194, 0.02821984887123108, -0.04661835357546806, 0.08549720048904419, 0.005785536486655474, -0.005662223324179649, -0.1706703007221222, -0.5257455110549927, -0.009467379190027714, -0.007973254658281803, 0.034059684723615646, -0.0017144980374723673, -0.12253524363040924, 0.013435115106403828, -0.24411560595035553, 0.02486661821603775, 0.2173108011484146, 0.038574229925870895, 0.003375567030161619, -0.020180195569992065, -0.03195003420114517, 0.023815950378775597],
      [1.3381965160369873, 0.005182824097573757, 0.0267180223017931, -0.06328648328781128, -0.12968701124191284, -0.008310006931424141, 0.23618151247501373, 0.0015985232312232256, -0.18460167944431305, -1.3019750118255615, 0.0379706509411335, 0.005087284371256828, 0.4765123128890991, 0.0053750560618937016, 0.37007421255111694, 0.05616804212331772, -0.2170637547969818, -0.01716715656220913, 1.262794017791748, 0.04411881044507027, -0.002236140426248312, 0.0007824556087143719, -0.063956119120121, 0.08468450605869293],
      [-0.17944268882274628, 0.0012736388016492128, 0.11340679973363876, -0.011367523111402988, -0.04546773061156273, 0.20968155562877655, 0.019363483414053917, -0.010368943214416504, -0.1083594560623169, -0.4126113951206207, -0.01079700980335474, -0.022650444880127907, -0.11043937504291534, -0.0023170816712081432, -0.00903892982751131, -0.061369769275188446, -0.05943913757801056, -0.005516038741916418, -0.6691092848777771, -0.012575749307870865, 0.0005440840031951666, -0.08496119827032089, 0.1954202800989151, 0.29159829020500183],
      [-0.002116738585755229, -0.0028088961262255907, -0.0048614065162837505, -0.00017600336286704987, -0.004463119897991419, 0.002355205127969384, -0.005174221936613321, 0.00016283904551528394, -0.006926008500158787, -0.0014191851951181889, -0.008734653703868389, -0.0007885053637437522, -0.002848351374268532, 0.0037805556785315275, -0.005560275632888079, 0.0005234948475845158, -0.005723768845200539, -0.003642298048362136, -0.004961683880537748, -0.006061736028641462, -0.0017311562551185489, -0.005811135284602642, -0.004914538003504276, -0.004412678070366383]
    ],
    "layers.4.bias": [1.5499300956726074, -1.5437911748886108],
    "layers.4.weight": [
      [0.016350165009498596, 0.004157271236181259, 0.016851983964443207, 0.0038765431381762028, -0.015400709584355354, 0.005009281914681196, 0.007777119986712933, -0.006146254483610392, -0.005977845750749111, 0.2669532001018524, -0.033319298177957535, 0.021641870960593224, 0.0023057248909026384, -0.03441132977604866, -0.00020703425980173051, 0.34830713272094727, -0.12767596542835236, -0.001749217975884676, 0.9811040759086609, -0.08250696957111359, 0.07032808661460876, -1.1456799507141113, 0.051878347992897034, -0.001648720121011138],
      [-0.01737825758755207, 0.0009357591043226421, -0.013301108963787556, 0.0012217164039611816, 0.016536053270101547, 0.001093528582714498, -0.0075624617747962475, 0.010498828254640102, -0.0005407774588093162, -0.2654833495616913, 0.043230440467596054, -0.029693083837628365, 0.0029893643222749233, 0.03500041738152504, -0.0027159852907061577, -0.33976367115974426, 0.13098950684070587, -0.00548086641356349, -0.9830901622772217, 0.07946543395519257, -0.07582615315914154, 1.1475733518600464, -0.05078515410423279, -0.0031852019019424915]
    ]
  }
} as const
